{"layers":[{"InputSize":4,"OutputSize":8,"Weights":[[-3.5977757,-0.05142099,5.457275,1.09681606,-1.16183209,-0.5766409,-2.201235,1.60481131],[-4.971711,-6.279127,-1.40446365,1.29283333,-6.81696653,6.80683565,-1.764102,-4.841255],[0.9445578,2.1252408,2.44288778,-0.9539274,-0.04568864,-1.47028089,-0.899187744,0.51913023],[-0.177203491,-1.08567071,-0.4532757,0.384025484,0.0970657542,-0.327822357,0.458587438,-0.923327565]],"Biases":[-0.245944291,-0.506179452,-1.07364082,1.8678323,2.96683645,0.4970015,2.47558975,0.944552362]},{"InputSize":8,"OutputSize":4,"Weights":[[-0.54552567,-1.75377786,1.8193872,-3.84363842],[0.779440463,-1.53778768,-0.09264403,-3.80163527],[-0.161287442,-0.9163203,-3.72462988,-1.10503137],[-0.7662043,-2.44902468,-3.10268331,0.8224058],[-3.3724122,-2.46699739,-0.9129775,-4.277081],[-1.28711975,-0.3789627,-0.8057914,2.09579659],[-0.0514117777,-1.50268936,-0.988930941,-1.38120782],[-1.02096117,-1.61439312,-2.0508647,-2.36999941]],"Biases":[-2.35488462,-1.62848532,-2.09223056,-1.13717175]}]}